svm_type epsilon_svr
kernel_type rbf
gamma 0.002
nr_class 2
total_sv 11
rho -6.80245
SV
1.868255167234824 1:49.4691 2:-53.1626 
-6.965161010628189 1:26.6187 2:-37.6404 
-2.389046625632419 1:30.4757 2:-55.1407 
-0.3753304895868794 1:16.8338 2:-49.1765 
3.69327652534298 1:11.1043 2:-37.5174 
-0.9328949419489112 1:51.9527 2:-40.7372 
-5.004990114570163 1:64.4328 2:-41.4537 
0.122108588787507 1:43.4642 2:-50.1409 
1.259578217377886 1:52.6 2:-66.3507 
5.389400970615668 1:26.5055 2:-43.6027 
3.334803713007696 1:19.6813 2:-68.076 
