svm_type epsilon_svr
kernel_type rbf
gamma 0.002
nr_class 2
total_sv 10
rho -6.73696
SV
1.884351971219207 1:49.4691 2:-53.1626 
16.18074725449248 1:26.6187 2:-37.6404 
9.127561533837222 1:30.4757 2:-55.1407 
5.44501663060494 1:11.1043 2:-37.5174 
3.968678830999371 1:51.9527 2:-40.7372 
-3.485599526891863 1:64.4328 2:-41.4537 
-3.855519876633043 1:43.4642 2:-50.1409 
-4.465982043564476 1:52.6 2:-66.3507 
-20.43974107014616 1:26.5055 2:-43.6027 
-4.359513703917679 1:19.6813 2:-68.076 
